digraph Tree {
node [shape=box, style="filled, rounded", color="black", fontname="helvetica"] ;
edge [fontname="helvetica"] ;
0 [label=<avg_odd_away_win &le; 3.395<br/>gini = 0.649<br/>samples = 996<br/>value = [303, 257, 436]<br/>class = 2>, fillcolor="#e7d9fa"] ;
1 [label=<avg_odd_away_win &le; 2.306<br/>gini = 0.659<br/>samples = 566<br/>value = [226, 158, 182]<br/>class = 0>, fillcolor="#fcf1e8"] ;
0 -> 1 [labeldistance=2.5, labelangle=45, headlabel="True"] ;
2 [label=<avg_odd_home_win &le; 8.154<br/>gini = 0.566<br/>samples = 183<br/>value = [108, 32, 43]<br/>class = 0>, fillcolor="#f3c5a3"] ;
1 -> 2 ;
3 [label=<avg_odd_away_win &le; 2.188<br/>gini = 0.602<br/>samples = 38<br/>value = [18, 5, 15]<br/>class = 0>, fillcolor="#fcefe5"] ;
2 -> 3 ;
4 [label=<avg_odd_draw &le; 7.187<br/>gini = 0.614<br/>samples = 25<br/>value = [9, 4, 12]<br/>class = 2>, fillcolor="#e7dafa"] ;
3 -> 4 ;
5 [label=<gini = 0.5<br/>samples = 12<br/>value = [2, 2, 8]<br/>class = 2>, fillcolor="#b388ef"] ;
4 -> 5 ;
6 [label=<gini = 0.592<br/>samples = 13<br/>value = [7, 2, 4]<br/>class = 0>, fillcolor="#f6d5bd"] ;
4 -> 6 ;
7 [label=<avg_odd_draw &le; 3.462<br/>gini = 0.462<br/>samples = 13<br/>value = [9, 1, 3]<br/>class = 0>, fillcolor="#efb388"] ;
3 -> 7 ;
8 [label=<gini = 0.5<br/>samples = 2<br/>value = [0, 1, 1]<br/>class = 1>, fillcolor="#ffffff"] ;
7 -> 8 ;
9 [label=<gini = 0.298<br/>samples = 11<br/>value = [9, 0, 2]<br/>class = 0>, fillcolor="#eb9d65"] ;
7 -> 9 ;
10 [label=<avg_odd_draw &le; 7.929<br/>gini = 0.543<br/>samples = 145<br/>value = [90, 27, 28]<br/>class = 0>, fillcolor="#f1bc96"] ;
2 -> 10 ;
11 [label=<avg_odd_draw &le; 7.766<br/>gini = 0.562<br/>samples = 134<br/>value = [80, 26, 28]<br/>class = 0>, fillcolor="#f2c19e"] ;
10 -> 11 ;
12 [label=<gini = 0.551<br/>samples = 131<br/>value = [80, 26, 25]<br/>class = 0>, fillcolor="#f2be99"] ;
11 -> 12 ;
13 [label=<gini = 0.0<br/>samples = 3<br/>value = [0, 0, 3]<br/>class = 2>, fillcolor="#8139e5"] ;
11 -> 13 ;
14 [label=<avg_odd_home_win &le; 9.87<br/>gini = 0.165<br/>samples = 11<br/>value = [10, 1, 0]<br/>class = 0>, fillcolor="#e88e4d"] ;
10 -> 14 ;
15 [label=<gini = 0.0<br/>samples = 8<br/>value = [8, 0, 0]<br/>class = 0>, fillcolor="#e58139"] ;
14 -> 15 ;
16 [label=<gini = 0.444<br/>samples = 3<br/>value = [2, 1, 0]<br/>class = 0>, fillcolor="#f2c09c"] ;
14 -> 16 ;
17 [label=<avg_odd_home_win &le; 6.536<br/>gini = 0.665<br/>samples = 383<br/>value = [118.0, 126.0, 139.0]<br/>class = 2>, fillcolor="#f9f5fe"] ;
1 -> 17 ;
18 [label=<avg_odd_draw &le; 3.072<br/>gini = 0.636<br/>samples = 103<br/>value = [20, 39, 44]<br/>class = 2>, fillcolor="#f5f0fd"] ;
17 -> 18 ;
19 [label=<avg_odd_home_win &le; 6.405<br/>gini = 0.397<br/>samples = 11<br/>value = [0, 8, 3]<br/>class = 1>, fillcolor="#83efb0"] ;
18 -> 19 ;
20 [label=<gini = 0.198<br/>samples = 9<br/>value = [0, 8, 1]<br/>class = 1>, fillcolor="#52e891"] ;
19 -> 20 ;
21 [label=<gini = 0.0<br/>samples = 2<br/>value = [0, 0, 2]<br/>class = 2>, fillcolor="#8139e5"] ;
19 -> 21 ;
22 [label=<avg_odd_home_win &le; 6.025<br/>gini = 0.641<br/>samples = 92<br/>value = [20, 31, 41]<br/>class = 2>, fillcolor="#eadffb"] ;
18 -> 22 ;
23 [label=<gini = 0.48<br/>samples = 5<br/>value = [2, 3, 0]<br/>class = 1>, fillcolor="#bdf6d5"] ;
22 -> 23 ;
24 [label=<gini = 0.632<br/>samples = 87<br/>value = [18, 28, 41]<br/>class = 2>, fillcolor="#e3d3f9"] ;
22 -> 24 ;
25 [label=<avg_odd_home_win &le; 7.26<br/>gini = 0.666<br/>samples = 280<br/>value = [98, 87, 95]<br/>class = 0>, fillcolor="#fffdfc"] ;
17 -> 25 ;
26 [label=<avg_odd_draw &le; 2.995<br/>gini = 0.652<br/>samples = 127<br/>value = [47, 30, 50]<br/>class = 2>, fillcolor="#faf8fe"] ;
25 -> 26 ;
27 [label=<gini = 0.0<br/>samples = 3<br/>value = [0, 0, 3]<br/>class = 2>, fillcolor="#8139e5"] ;
26 -> 27 ;
28 [label=<gini = 0.654<br/>samples = 124<br/>value = [47, 30, 47]<br/>class = 0>, fillcolor="#ffffff"] ;
26 -> 28 ;
29 [label=<avg_odd_away_win &le; 3.219<br/>gini = 0.664<br/>samples = 153<br/>value = [51, 57, 45]<br/>class = 1>, fillcolor="#f3fdf8"] ;
25 -> 29 ;
30 [label=<gini = 0.661<br/>samples = 144<br/>value = [45, 57, 42]<br/>class = 1>, fillcolor="#e7fcf0"] ;
29 -> 30 ;
31 [label=<gini = 0.444<br/>samples = 9<br/>value = [6, 0, 3]<br/>class = 0>, fillcolor="#f2c09c"] ;
29 -> 31 ;
32 [label=<avg_odd_draw &le; 3.62<br/>gini = 0.566<br/>samples = 430<br/>value = [77, 99, 254]<br/>class = 2>, fillcolor="#c4a2f3"] ;
0 -> 32 [labeldistance=2.5, labelangle=-45, headlabel="False"] ;
33 [label=<avg_odd_away_win &le; 5.51<br/>gini = 0.621<br/>samples = 221<br/>value = [51, 58, 112]<br/>class = 2>, fillcolor="#d5bdf6"] ;
32 -> 33 ;
34 [label=<avg_odd_home_win &le; 7.715<br/>gini = 0.616<br/>samples = 217<br/>value = [50, 55, 112]<br/>class = 2>, fillcolor="#d3b9f6"] ;
33 -> 34 ;
35 [label=<avg_odd_home_win &le; 7.554<br/>gini = 0.627<br/>samples = 200<br/>value = [47, 54, 99]<br/>class = 2>, fillcolor="#d8c2f7"] ;
34 -> 35 ;
36 [label=<gini = 0.621<br/>samples = 195<br/>value = [45, 51, 99]<br/>class = 2>, fillcolor="#d5bdf6"] ;
35 -> 36 ;
37 [label=<gini = 0.48<br/>samples = 5<br/>value = [2, 3, 0]<br/>class = 1>, fillcolor="#bdf6d5"] ;
35 -> 37 ;
38 [label=<avg_odd_draw &le; 3.59<br/>gini = 0.381<br/>samples = 17<br/>value = [3, 1, 13]<br/>class = 2>, fillcolor="#a572ec"] ;
34 -> 38 ;
39 [label=<gini = 0.305<br/>samples = 16<br/>value = [3, 0, 13]<br/>class = 2>, fillcolor="#9e67eb"] ;
38 -> 39 ;
40 [label=<gini = 0.0<br/>samples = 1<br/>value = [0, 1, 0]<br/>class = 1>, fillcolor="#39e581"] ;
38 -> 40 ;
41 [label=<avg_odd_draw &le; 3.493<br/>gini = 0.375<br/>samples = 4<br/>value = [1, 3, 0]<br/>class = 1>, fillcolor="#7beeab"] ;
33 -> 41 ;
42 [label=<gini = 0.0<br/>samples = 1<br/>value = [1, 0, 0]<br/>class = 0>, fillcolor="#e58139"] ;
41 -> 42 ;
43 [label=<gini = 0.0<br/>samples = 3<br/>value = [0, 3, 0]<br/>class = 1>, fillcolor="#39e581"] ;
41 -> 43 ;
44 [label=<avg_odd_away_win &le; 3.743<br/>gini = 0.484<br/>samples = 209<br/>value = [26, 41, 142]<br/>class = 2>, fillcolor="#b388ef"] ;
32 -> 44 ;
45 [label=<avg_odd_away_win &le; 3.648<br/>gini = 0.648<br/>samples = 16<br/>value = [5, 4, 7]<br/>class = 2>, fillcolor="#e8dbfa"] ;
44 -> 45 ;
46 [label=<avg_odd_home_win &le; 6.079<br/>gini = 0.592<br/>samples = 13<br/>value = [2, 4, 7]<br/>class = 2>, fillcolor="#d5bdf6"] ;
45 -> 46 ;
47 [label=<gini = 0.0<br/>samples = 3<br/>value = [0, 0, 3]<br/>class = 2>, fillcolor="#8139e5"] ;
46 -> 47 ;
48 [label=<gini = 0.64<br/>samples = 10<br/>value = [2, 4, 4]<br/>class = 1>, fillcolor="#ffffff"] ;
46 -> 48 ;
49 [label=<gini = 0.0<br/>samples = 3<br/>value = [3, 0, 0]<br/>class = 0>, fillcolor="#e58139"] ;
45 -> 49 ;
50 [label=<avg_odd_home_win &le; 7.269<br/>gini = 0.462<br/>samples = 193<br/>value = [21, 37, 135]<br/>class = 2>, fillcolor="#b083ef"] ;
44 -> 50 ;
51 [label=<avg_odd_home_win &le; 7.161<br/>gini = 0.486<br/>samples = 173<br/>value = [20.0, 36.0, 117.0]<br/>class = 2>, fillcolor="#b58af0"] ;
50 -> 51 ;
52 [label=<gini = 0.473<br/>samples = 168<br/>value = [20, 32, 116]<br/>class = 2>, fillcolor="#b185ef"] ;
51 -> 52 ;
53 [label=<gini = 0.32<br/>samples = 5<br/>value = [0, 4, 1]<br/>class = 1>, fillcolor="#6aeca0"] ;
51 -> 53 ;
54 [label=<avg_odd_away_win &le; 5.738<br/>gini = 0.185<br/>samples = 20<br/>value = [1, 1, 18]<br/>class = 2>, fillcolor="#8e4ee8"] ;
50 -> 54 ;
55 [label=<gini = 0.406<br/>samples = 8<br/>value = [1, 1, 6]<br/>class = 2>, fillcolor="#a572ec"] ;
54 -> 55 ;
56 [label=<gini = 0.0<br/>samples = 12<br/>value = [0, 0, 12]<br/>class = 2>, fillcolor="#8139e5"] ;
54 -> 56 ;
}
